digraph Tree {
node [shape=box, style="filled, rounded", color="black", fontname="helvetica"] ;
edge [fontname="helvetica"] ;
0 [label="X[4] <= 0.5\ngini = 0.495\nsamples = 420\nvalue = [232, 188]", fillcolor="#fae7d9"] ;
1 [label="X[9] <= 0.5\ngini = 0.483\nsamples = 147\nvalue = [60, 87]", fillcolor="#c2e1f7"] ;
0 -> 1 [labeldistance=2.5, labelangle=45, headlabel="True"] ;
2 [label="X[3] <= 26876.3\ngini = 0.378\nsamples = 87\nvalue = [22, 65]", fillcolor="#7cbeee"] ;
1 -> 2 ;
3 [label="X[5] <= 1.5\ngini = 0.496\nsamples = 44\nvalue = [20, 24]", fillcolor="#deeffb"] ;
2 -> 3 ;
4 [label="X[3] <= 26494.45\ngini = 0.302\nsamples = 27\nvalue = [5, 22]", fillcolor="#66b3eb"] ;
3 -> 4 ;
5 [label="X[0] <= 19.5\ngini = 0.26\nsamples = 26\nvalue = [4, 22]", fillcolor="#5dafea"] ;
4 -> 5 ;
6 [label="gini = 0.0\nsamples = 1\nvalue = [1, 0]", fillcolor="#e58139"] ;
5 -> 6 ;
7 [label="X[3] <= 12223.2\ngini = 0.211\nsamples = 25\nvalue = [3, 22]", fillcolor="#54aae9"] ;
5 -> 7 ;
8 [label="X[0] <= 26.0\ngini = 0.48\nsamples = 5\nvalue = [2, 3]", fillcolor="#bddef6"] ;
7 -> 8 ;
9 [label="gini = 0.0\nsamples = 3\nvalue = [0, 3]", fillcolor="#399de5"] ;
8 -> 9 ;
10 [label="gini = 0.0\nsamples = 2\nvalue = [2, 0]", fillcolor="#e58139"] ;
8 -> 10 ;
11 [label="X[0] <= 44.5\ngini = 0.095\nsamples = 20\nvalue = [1, 19]", fillcolor="#43a2e6"] ;
7 -> 11 ;
12 [label="gini = 0.0\nsamples = 14\nvalue = [0, 14]", fillcolor="#399de5"] ;
11 -> 12 ;
13 [label="X[0] <= 49.5\ngini = 0.278\nsamples = 6\nvalue = [1, 5]", fillcolor="#61b1ea"] ;
11 -> 13 ;
14 [label="gini = 0.0\nsamples = 1\nvalue = [1, 0]", fillcolor="#e58139"] ;
13 -> 14 ;
15 [label="gini = 0.0\nsamples = 5\nvalue = [0, 5]", fillcolor="#399de5"] ;
13 -> 15 ;
16 [label="gini = 0.0\nsamples = 1\nvalue = [1, 0]", fillcolor="#e58139"] ;
4 -> 16 ;
17 [label="X[5] <= 2.5\ngini = 0.208\nsamples = 17\nvalue = [15, 2]", fillcolor="#e89253"] ;
3 -> 17 ;
18 [label="gini = 0.0\nsamples = 10\nvalue = [10, 0]", fillcolor="#e58139"] ;
17 -> 18 ;
19 [label="X[3] <= 22029.6\ngini = 0.408\nsamples = 7\nvalue = [5, 2]", fillcolor="#efb388"] ;
17 -> 19 ;
20 [label="X[2] <= 2.5\ngini = 0.278\nsamples = 6\nvalue = [5, 1]", fillcolor="#ea9a61"] ;
19 -> 20 ;
21 [label="gini = 0.0\nsamples = 5\nvalue = [5, 0]", fillcolor="#e58139"] ;
20 -> 21 ;
22 [label="gini = 0.0\nsamples = 1\nvalue = [0, 1]", fillcolor="#399de5"] ;
20 -> 22 ;
23 [label="gini = 0.0\nsamples = 1\nvalue = [0, 1]", fillcolor="#399de5"] ;
19 -> 23 ;
24 [label="X[5] <= 2.5\ngini = 0.089\nsamples = 43\nvalue = [2, 41]", fillcolor="#43a2e6"] ;
2 -> 24 ;
25 [label="gini = 0.0\nsamples = 40\nvalue = [0, 40]", fillcolor="#399de5"] ;
24 -> 25 ;
26 [label="X[3] <= 44637.0\ngini = 0.444\nsamples = 3\nvalue = [2, 1]", fillcolor="#f2c09c"] ;
24 -> 26 ;
27 [label="gini = 0.0\nsamples = 2\nvalue = [2, 0]", fillcolor="#e58139"] ;
26 -> 27 ;
28 [label="gini = 0.0\nsamples = 1\nvalue = [0, 1]", fillcolor="#399de5"] ;
26 -> 28 ;
29 [label="X[0] <= 26.5\ngini = 0.464\nsamples = 60\nvalue = [38, 22]", fillcolor="#f4caac"] ;
1 -> 29 ;
30 [label="gini = 0.0\nsamples = 13\nvalue = [13, 0]", fillcolor="#e58139"] ;
29 -> 30 ;
31 [label="X[7] <= 0.5\ngini = 0.498\nsamples = 47\nvalue = [25, 22]", fillcolor="#fcf0e7"] ;
29 -> 31 ;
32 [label="X[5] <= 2.0\ngini = 0.391\nsamples = 15\nvalue = [4, 11]", fillcolor="#81c1ee"] ;
31 -> 32 ;
33 [label="X[0] <= 31.5\ngini = 0.153\nsamples = 12\nvalue = [1, 11]", fillcolor="#4ba6e7"] ;
32 -> 33 ;
34 [label="X[1] <= 0.5\ngini = 0.444\nsamples = 3\nvalue = [1, 2]", fillcolor="#9ccef2"] ;
33 -> 34 ;
35 [label="gini = 0.0\nsamples = 2\nvalue = [0, 2]", fillcolor="#399de5"] ;
34 -> 35 ;
36 [label="gini = 0.0\nsamples = 1\nvalue = [1, 0]", fillcolor="#e58139"] ;
34 -> 36 ;
37 [label="gini = 0.0\nsamples = 9\nvalue = [0, 9]", fillcolor="#399de5"] ;
33 -> 37 ;
38 [label="gini = 0.0\nsamples = 3\nvalue = [3, 0]", fillcolor="#e58139"] ;
32 -> 38 ;
39 [label="X[5] <= 0.5\ngini = 0.451\nsamples = 32\nvalue = [21, 11]", fillcolor="#f3c3a1"] ;
31 -> 39 ;
40 [label="gini = 0.0\nsamples = 14\nvalue = [14, 0]", fillcolor="#e58139"] ;
39 -> 40 ;
41 [label="X[8] <= 0.5\ngini = 0.475\nsamples = 18\nvalue = [7, 11]", fillcolor="#b7dbf6"] ;
39 -> 41 ;
42 [label="X[1] <= 0.5\ngini = 0.375\nsamples = 4\nvalue = [3, 1]", fillcolor="#eeab7b"] ;
41 -> 42 ;
43 [label="gini = 0.0\nsamples = 1\nvalue = [0, 1]", fillcolor="#399de5"] ;
42 -> 43 ;
44 [label="gini = 0.0\nsamples = 3\nvalue = [3, 0]", fillcolor="#e58139"] ;
42 -> 44 ;
45 [label="X[0] <= 53.0\ngini = 0.408\nsamples = 14\nvalue = [4, 10]", fillcolor="#88c4ef"] ;
41 -> 45 ;
46 [label="X[0] <= 28.5\ngini = 0.298\nsamples = 11\nvalue = [2, 9]", fillcolor="#65b3eb"] ;
45 -> 46 ;
47 [label="gini = 0.0\nsamples = 1\nvalue = [1, 0]", fillcolor="#e58139"] ;
46 -> 47 ;
48 [label="X[2] <= 1.5\ngini = 0.18\nsamples = 10\nvalue = [1, 9]", fillcolor="#4fa8e8"] ;
46 -> 48 ;
49 [label="gini = 0.0\nsamples = 8\nvalue = [0, 8]", fillcolor="#399de5"] ;
48 -> 49 ;
50 [label="X[0] <= 40.5\ngini = 0.5\nsamples = 2\nvalue = [1, 1]", fillcolor="#ffffff"] ;
48 -> 50 ;
51 [label="gini = 0.0\nsamples = 1\nvalue = [1, 0]", fillcolor="#e58139"] ;
50 -> 51 ;
52 [label="gini = 0.0\nsamples = 1\nvalue = [0, 1]", fillcolor="#399de5"] ;
50 -> 52 ;
53 [label="X[2] <= 2.5\ngini = 0.444\nsamples = 3\nvalue = [2, 1]", fillcolor="#f2c09c"] ;
45 -> 53 ;
54 [label="gini = 0.0\nsamples = 2\nvalue = [2, 0]", fillcolor="#e58139"] ;
53 -> 54 ;
55 [label="gini = 0.0\nsamples = 1\nvalue = [0, 1]", fillcolor="#399de5"] ;
53 -> 55 ;
56 [label="X[5] <= 0.5\ngini = 0.466\nsamples = 273\nvalue = [172, 101]", fillcolor="#f4cbad"] ;
0 -> 56 [labeldistance=2.5, labelangle=-45, headlabel="False"] ;
57 [label="X[7] <= 0.5\ngini = 0.32\nsamples = 130\nvalue = [104, 26]", fillcolor="#eca06a"] ;
56 -> 57 ;
58 [label="X[9] <= 0.5\ngini = 0.485\nsamples = 41\nvalue = [24, 17]", fillcolor="#f7dac5"] ;
57 -> 58 ;
59 [label="X[3] <= 21559.199\ngini = 0.211\nsamples = 25\nvalue = [22, 3]", fillcolor="#e99254"] ;
58 -> 59 ;
60 [label="X[0] <= 41.5\ngini = 0.397\nsamples = 11\nvalue = [8, 3]", fillcolor="#efb083"] ;
59 -> 60 ;
61 [label="X[3] <= 15933.75\ngini = 0.198\nsamples = 9\nvalue = [8, 1]", fillcolor="#e89152"] ;
60 -> 61 ;
62 [label="gini = 0.0\nsamples = 7\nvalue = [7, 0]", fillcolor="#e58139"] ;
61 -> 62 ;
63 [label="X[2] <= 1.0\ngini = 0.5\nsamples = 2\nvalue = [1, 1]", fillcolor="#ffffff"] ;
61 -> 63 ;
64 [label="gini = 0.0\nsamples = 1\nvalue = [0, 1]", fillcolor="#399de5"] ;
63 -> 64 ;
65 [label="gini = 0.0\nsamples = 1\nvalue = [1, 0]", fillcolor="#e58139"] ;
63 -> 65 ;
66 [label="gini = 0.0\nsamples = 2\nvalue = [0, 2]", fillcolor="#399de5"] ;
60 -> 66 ;
67 [label="gini = 0.0\nsamples = 14\nvalue = [14, 0]", fillcolor="#e58139"] ;
59 -> 67 ;
68 [label="X[2] <= 0.5\ngini = 0.219\nsamples = 16\nvalue = [2, 14]", fillcolor="#55abe9"] ;
58 -> 68 ;
69 [label="gini = 0.0\nsamples = 9\nvalue = [0, 9]", fillcolor="#399de5"] ;
68 -> 69 ;
70 [label="X[2] <= 1.5\ngini = 0.408\nsamples = 7\nvalue = [2, 5]", fillcolor="#88c4ef"] ;
68 -> 70 ;
71 [label="X[0] <= 49.0\ngini = 0.444\nsamples = 3\nvalue = [2, 1]", fillcolor="#f2c09c"] ;
70 -> 71 ;
72 [label="gini = 0.0\nsamples = 2\nvalue = [2, 0]", fillcolor="#e58139"] ;
71 -> 72 ;
73 [label="gini = 0.0\nsamples = 1\nvalue = [0, 1]", fillcolor="#399de5"] ;
71 -> 73 ;
74 [label="gini = 0.0\nsamples = 4\nvalue = [0, 4]", fillcolor="#399de5"] ;
70 -> 74 ;
75 [label="X[0] <= 31.5\ngini = 0.182\nsamples = 89\nvalue = [80, 9]", fillcolor="#e88f4f"] ;
57 -> 75 ;
76 [label="X[0] <= 30.5\ngini = 0.457\nsamples = 17\nvalue = [11, 6]", fillcolor="#f3c6a5"] ;
75 -> 76 ;
77 [label="X[3] <= 22037.8\ngini = 0.43\nsamples = 16\nvalue = [11, 5]", fillcolor="#f1ba93"] ;
76 -> 77 ;
78 [label="X[0] <= 22.5\ngini = 0.391\nsamples = 15\nvalue = [11, 4]", fillcolor="#eeaf81"] ;
77 -> 78 ;
79 [label="X[6] <= 0.5\ngini = 0.5\nsamples = 6\nvalue = [3, 3]", fillcolor="#ffffff"] ;
78 -> 79 ;
80 [label="X[3] <= 10946.1\ngini = 0.48\nsamples = 5\nvalue = [3, 2]", fillcolor="#f6d5bd"] ;
79 -> 80 ;
81 [label="gini = 0.0\nsamples = 1\nvalue = [0, 1]", fillcolor="#399de5"] ;
80 -> 81 ;
82 [label="X[1] <= 0.5\ngini = 0.375\nsamples = 4\nvalue = [3, 1]", fillcolor="#eeab7b"] ;
80 -> 82 ;
83 [label="gini = 0.5\nsamples = 2\nvalue = [1, 1]", fillcolor="#ffffff"] ;
82 -> 83 ;
84 [label="gini = 0.0\nsamples = 2\nvalue = [2, 0]", fillcolor="#e58139"] ;
82 -> 84 ;
85 [label="gini = 0.0\nsamples = 1\nvalue = [0, 1]", fillcolor="#399de5"] ;
79 -> 85 ;
86 [label="X[3] <= 20438.85\ngini = 0.198\nsamples = 9\nvalue = [8, 1]", fillcolor="#e89152"] ;
78 -> 86 ;
87 [label="gini = 0.0\nsamples = 7\nvalue = [7, 0]", fillcolor="#e58139"] ;
86 -> 87 ;
88 [label="X[3] <= 20884.85\ngini = 0.5\nsamples = 2\nvalue = [1, 1]", fillcolor="#ffffff"] ;
86 -> 88 ;
89 [label="gini = 0.0\nsamples = 1\nvalue = [0, 1]", fillcolor="#399de5"] ;
88 -> 89 ;
90 [label="gini = 0.0\nsamples = 1\nvalue = [1, 0]", fillcolor="#e58139"] ;
88 -> 90 ;
91 [label="gini = 0.0\nsamples = 1\nvalue = [0, 1]", fillcolor="#399de5"] ;
77 -> 91 ;
92 [label="gini = 0.0\nsamples = 1\nvalue = [0, 1]", fillcolor="#399de5"] ;
76 -> 92 ;
93 [label="X[2] <= 2.5\ngini = 0.08\nsamples = 72\nvalue = [69, 3]", fillcolor="#e68642"] ;
75 -> 93 ;
94 [label="X[0] <= 60.0\ngini = 0.03\nsamples = 66\nvalue = [65, 1]", fillcolor="#e5833c"] ;
93 -> 94 ;
95 [label="gini = 0.0\nsamples = 52\nvalue = [52, 0]", fillcolor="#e58139"] ;
94 -> 95 ;
96 [label="X[0] <= 62.5\ngini = 0.133\nsamples = 14\nvalue = [13, 1]", fillcolor="#e78b48"] ;
94 -> 96 ;
97 [label="X[8] <= 0.5\ngini = 0.5\nsamples = 2\nvalue = [1, 1]", fillcolor="#ffffff"] ;
96 -> 97 ;
98 [label="gini = 0.0\nsamples = 1\nvalue = [0, 1]", fillcolor="#399de5"] ;
97 -> 98 ;
99 [label="gini = 0.0\nsamples = 1\nvalue = [1, 0]", fillcolor="#e58139"] ;
97 -> 99 ;
100 [label="gini = 0.0\nsamples = 12\nvalue = [12, 0]", fillcolor="#e58139"] ;
96 -> 100 ;
101 [label="X[9] <= 0.5\ngini = 0.444\nsamples = 6\nvalue = [4, 2]", fillcolor="#f2c09c"] ;
93 -> 101 ;
102 [label="gini = 0.0\nsamples = 4\nvalue = [4, 0]", fillcolor="#e58139"] ;
101 -> 102 ;
103 [label="gini = 0.0\nsamples = 2\nvalue = [0, 2]", fillcolor="#399de5"] ;
101 -> 103 ;
104 [label="X[5] <= 1.5\ngini = 0.499\nsamples = 143\nvalue = [68, 75]", fillcolor="#edf6fd"] ;
56 -> 104 ;
105 [label="X[3] <= 15576.45\ngini = 0.266\nsamples = 57\nvalue = [9, 48]", fillcolor="#5eafea"] ;
104 -> 105 ;
106 [label="X[0] <= 41.5\ngini = 0.32\nsamples = 10\nvalue = [8, 2]", fillcolor="#eca06a"] ;
105 -> 106 ;
107 [label="X[9] <= 0.5\ngini = 0.198\nsamples = 9\nvalue = [8, 1]", fillcolor="#e89152"] ;
106 -> 107 ;
108 [label="gini = 0.0\nsamples = 6\nvalue = [6, 0]", fillcolor="#e58139"] ;
107 -> 108 ;
109 [label="X[3] <= 11904.25\ngini = 0.444\nsamples = 3\nvalue = [2, 1]", fillcolor="#f2c09c"] ;
107 -> 109 ;
110 [label="gini = 0.0\nsamples = 2\nvalue = [2, 0]", fillcolor="#e58139"] ;
109 -> 110 ;
111 [label="gini = 0.0\nsamples = 1\nvalue = [0, 1]", fillcolor="#399de5"] ;
109 -> 111 ;
112 [label="gini = 0.0\nsamples = 1\nvalue = [0, 1]", fillcolor="#399de5"] ;
106 -> 112 ;
113 [label="X[0] <= 64.5\ngini = 0.042\nsamples = 47\nvalue = [1, 46]", fillcolor="#3d9fe6"] ;
105 -> 113 ;
114 [label="gini = 0.0\nsamples = 42\nvalue = [0, 42]", fillcolor="#399de5"] ;
113 -> 114 ;
115 [label="X[0] <= 65.5\ngini = 0.32\nsamples = 5\nvalue = [1, 4]", fillcolor="#6ab6ec"] ;
113 -> 115 ;
116 [label="gini = 0.0\nsamples = 1\nvalue = [1, 0]", fillcolor="#e58139"] ;
115 -> 116 ;
117 [label="gini = 0.0\nsamples = 4\nvalue = [0, 4]", fillcolor="#399de5"] ;
115 -> 117 ;
118 [label="X[3] <= 33382.85\ngini = 0.431\nsamples = 86\nvalue = [59, 27]", fillcolor="#f1bb94"] ;
104 -> 118 ;
119 [label="X[0] <= 38.5\ngini = 0.228\nsamples = 61\nvalue = [53, 8]", fillcolor="#e99457"] ;
118 -> 119 ;
120 [label="X[0] <= 37.5\ngini = 0.353\nsamples = 35\nvalue = [27, 8]", fillcolor="#eda674"] ;
119 -> 120 ;
121 [label="X[3] <= 8391.495\ngini = 0.327\nsamples = 34\nvalue = [27, 7]", fillcolor="#eca26c"] ;
120 -> 121 ;
122 [label="gini = 0.0\nsamples = 1\nvalue = [0, 1]", fillcolor="#399de5"] ;
121 -> 122 ;
123 [label="X[3] <= 30111.2\ngini = 0.298\nsamples = 33\nvalue = [27, 6]", fillcolor="#eb9d65"] ;
121 -> 123 ;
124 [label="X[0] <= 22.5\ngini = 0.264\nsamples = 32\nvalue = [27, 5]", fillcolor="#ea985e"] ;
123 -> 124 ;
125 [label="gini = 0.0\nsamples = 9\nvalue = [9, 0]", fillcolor="#e58139"] ;
124 -> 125 ;
126 [label="X[3] <= 11257.3\ngini = 0.34\nsamples = 23\nvalue = [18, 5]", fillcolor="#eca470"] ;
124 -> 126 ;
127 [label="gini = 0.5\nsamples = 4\nvalue = [2, 2]", fillcolor="#ffffff"] ;
126 -> 127 ;
128 [label="gini = 0.266\nsamples = 19\nvalue = [16, 3]", fillcolor="#ea995e"] ;
126 -> 128 ;
129 [label="gini = 0.0\nsamples = 1\nvalue = [0, 1]", fillcolor="#399de5"] ;
123 -> 129 ;
130 [label="gini = 0.0\nsamples = 1\nvalue = [0, 1]", fillcolor="#399de5"] ;
120 -> 130 ;
131 [label="gini = 0.0\nsamples = 26\nvalue = [26, 0]", fillcolor="#e58139"] ;
119 -> 131 ;
132 [label="X[2] <= 0.5\ngini = 0.365\nsamples = 25\nvalue = [6, 19]", fillcolor="#78bced"] ;
118 -> 132 ;
133 [label="X[6] <= 0.5\ngini = 0.494\nsamples = 9\nvalue = [5, 4]", fillcolor="#fae6d7"] ;
132 -> 133 ;
134 [label="X[5] <= 2.5\ngini = 0.444\nsamples = 6\nvalue = [2, 4]", fillcolor="#9ccef2"] ;
133 -> 134 ;
135 [label="gini = 0.0\nsamples = 4\nvalue = [0, 4]", fillcolor="#399de5"] ;
134 -> 135 ;
136 [label="gini = 0.0\nsamples = 2\nvalue = [2, 0]", fillcolor="#e58139"] ;
134 -> 136 ;
137 [label="gini = 0.0\nsamples = 3\nvalue = [3, 0]", fillcolor="#e58139"] ;
133 -> 137 ;
138 [label="X[0] <= 50.0\ngini = 0.117\nsamples = 16\nvalue = [1, 15]", fillcolor="#46a4e7"] ;
132 -> 138 ;
139 [label="X[1] <= 0.5\ngini = 0.444\nsamples = 3\nvalue = [1, 2]", fillcolor="#9ccef2"] ;
138 -> 139 ;
140 [label="gini = 0.0\nsamples = 1\nvalue = [1, 0]", fillcolor="#e58139"] ;
139 -> 140 ;
141 [label="gini = 0.0\nsamples = 2\nvalue = [0, 2]", fillcolor="#399de5"] ;
139 -> 141 ;
142 [label="gini = 0.0\nsamples = 13\nvalue = [0, 13]", fillcolor="#399de5"] ;
138 -> 142 ;
}